tree
version=v4
num_class=1
num_tree_per_iteration=1
label_index=0
max_feature_idx=22
objective=binary sigmoid:1
feature_names=monto_reclamado suma_asegurada monto_vs_suma_pct monto_vs_reparacion_avg_pct dias_entre_ocurrencia_reporte dias_desde_inicio_poliza dias_desde_fin_poliza demora_denuncia_horas historial_siniestros_asegurado frecuencia_vehiculo frecuencia_conductor eventos_rc_previos proveedor_casos_observados narrativa_similar_score documentos_incompletos inconsistencia_documental narrativa_clonada evento_medianoche es_robo cobertura_rc proveedor_en_lista_restrictiva beneficiario_en_lista_restrictiva narrativa_ilogica
feature_infos=[601.83000000000004:81537.440000000002] [7000:80000] [0.041603888888888892:1.1963200000000001] none [0:13] none none [0:312] none none none none none none [0:1] none none none [0:1] [0:1] none none none
tree_sizes=3005 3404

Tree=0
num_leaves=28
num_cat=0
split_feature=18 0 0 0 0 0 0 0 0 14 2 2 0 0 2 2 2 2 0 0 0 0 0 0 2 0 2
split_gain=485.015 578.693 1.92675 4.45853 5.24426 1.88793 1.25862 0.619547 3.92298 0.848722 0.750483 2.3879 0.352691 2.06774 0.26004 1.32628 0.173578 1.53582 0.0381401 1.13687e-13 7.10543e-15 1.77636e-15 1.77636e-15 1.77636e-15 1.77636e-15 4.44089e-16 4.44089e-16
threshold=1.0000000180025095e-35 19149.000000000004 16469.310000000005 18039.790000000005 17377.470000000005 16715.225000000002 17606.450000000001 23346.175000000003 24052.580000000005 1.0000000180025095e-35 0.87888000000000011 0.97273285714285729 44869.200000000004 49619.700000000004 0.59656409090909102 0.60407600000000017 0.65083204545454565 0.64403704545454554 36266.30000000001 48130.30000000001 1894.0050000000003 1552.4550000000002 10966.235000000002 38805.600000000006 0.88858800000000004 14894.615000000002 0.88366253571428588
decision_type=2 2 2 2 2 2 2 2 2 2 2 2 2 2 2 2 2 2 2 2 2 2 2 2 2 2 2
left_child=2 22 14 4 5 -4 -6 24 -9 12 -11 18 23 -14 20 -16 17 25 -12 -3 21 -1 -2 -10 -5 -17 -15
right_child=1 19 3 7 6 -7 -8 8 9 10 11 -13 13 26 15 16 -18 -19 -20 -21 -22 -23 -24 -25 -26 -27 -28
leaf_value=-2.4052751110087787 -2.4052751110087787 -1.7759636471901126 -2.2794128182450462 -2.4052751110087787 -2.1535505254813128 -2.4052751110087787 -2.2794128182450457 -2.2794128182450453 -2.4052751110087787 -2.4052751110087787 -2.2794128182450457 -2.4052751110087787 -2.2794128182450457 -2.4052751110087787 -2.3266111780314453 -2.4052751110087787 -2.4052751110087787 -2.3153734733203977 -2.3003898670390011 -1.7759636471901135 -2.4052751110087787 -2.4052751110087787 -2.4052751110087787 -2.4052751110087787 -2.4052751110087787 -2.4052751110087787 -2.4052751110087787
leaf_weight=7.5479315593838674 5.720537602901457 6.8328643590211868 0.39725955575704874 5.7205376029014614 0.39725955575704563 1.191778667271137 0.39725955575704575 0.79451911151409049 7.5479315593838674 0.95342293381690923 0.39725955575704552 0.95342293381690979 0.39725955575704519 0.95342293381690957 0.63561528921127219 2.4630092456936827 7.46847964823246 0.55616337805986393 0.4767114669084549 0.63561528921127308 29.317755214869976 4.1314993798732758 1.4301344007253645 0.55616337805986393 1.5890382230281828 0.79451911151409138 0.87397102266550064
leaf_count=95 72 86 5 72 5 15 5 10 95 12 5 12 5 12 8 31 94 7 6 8 369 52 18 7 20 10 11
internal_value=-2.34767 -2.08378 -2.39809 -2.38621 -2.32137 -2.37381 -2.21648 -2.39349 -2.38729 -2.39383 -2.36931 -2.35055 -2.40043 -2.3828 -2.40339 -2.39688 -2.40084 -2.39216 -2.29085 -1.77596 -2.40528 -2.40528 -2.40528 -2.40528 -2.40528 -2.40528 -2.40528
internal_weight=91.1313 14.6192 76.5122 23.5972 2.38356 1.58904 0.794519 21.2137 13.9041 13.1096 2.78082 1.82739 10.3287 2.22465 52.915 11.9178 11.2822 3.81369 0.873971 7.46848 40.9972 11.6794 7.15067 8.10409 7.30958 3.25753 1.82739
internal_count=1147 184 963 297 30 20 10 267 175 165 35 23 130 28 666 150 142 48 11 94 516 147 90 102 92 41 23
is_linear=0
shrinkage=1


Tree=1
num_leaves=31
num_cat=0
split_feature=18 1 2 4 2 2 2 4 4 2 2 2 4 1 2 2 2 2 4 4 2 2 4 4 2 2 2 2 2 4
split_gain=353.058 275.293 1.85383 1.06534 1.32276 1.06116 6.62332 0.641726 1.19437 1.1688 0.61735 6.70583 0.757616 1.09873 1.24702 2.3976 0.23496 1.99759 0.29313 1.13621 0.162525 1.9692e-05 1.63701e-05 1.16276e-05 8.63743e-06 8.38809e-06 7.66774e-06 5.39634e-06 4.14588e-06 3.04207e-06
threshold=1.0000000180025095e-35 24500.000000000004 0.59656409090909102 1.5000000000000002 0.60407600000000017 0.97014000000000011 0.96638797916666674 9.5000000000000018 8.5000000000000018 0.74784100000000009 0.89919929166666679 0.9164882000000002 2.5000000000000004 25500.000000000004 0.64880300000000013 0.78453603571428587 0.80665200000000015 0.79376785714285725 5.5000000000000009 6.5000000000000009 0.81130400000000014 0.88621137500000013 2.5000000000000004 11.500000000000002 0.7120341468253969 0.88621137500000013 0.77826714285714294 0.93269392857142863 0.69420500000000007 1.0000000180025095e-35
decision_type=2 2 2 2 2 2 2 2 2 2 2 2 2 2 2 2 2 2 2 2 2 2 2 2 2 2 2 2 2 2
left_child=2 -2 -1 28 -5 6 7 8 10 -10 12 -12 13 14 -6 -16 17 18 26 -20 -11 23 -13 -9 -21 -18 -14 -23 29 -4
right_child=1 -3 3 4 5 -7 -8 21 9 20 11 22 16 -15 15 -17 25 -19 19 24 -22 27 -24 -25 -26 -27 -28 -29 -30 -31
leaf_value=-0.054512033112194783 -0.054512033112194762 0.34529847370709249 -0.05464158205726926 0.047958669369513901 -0.054587266564429304 -0.054512033112194783 0.15363280132950993 -0.054512033112194762 -0.054512033112194574 0.065878174798937969 0.15707978311606477 -0.05492919503649505 -0.054537008964099937 -0.054563245590625455 0.10468645035348625 -0.054512033112194637 -0.054526593338714381 0.068470940069015232 0.025343249452483396 -0.054758736851597267 0.0254570667268476 -0.054970424340903878 -0.054590013691697171 -0.054753720882422897 -0.054512033112194727 -0.054769323529030571 -0.054769323529030571 -0.054722076662099418 -0.054530124578470202 -0.054512033112194706
leaf_weight=39.174839526414871 6.8328208476305035 11.640449136495588 1.7847199961543068 0.48619227111339824 0.46138446033001956 5.6180971413850775 0.47965802252292533 1.6702450960874555 0.45552138984203416 0.41346975415945031 0.47212629020214203 0.48873119056224812 3.4305759444832788 0.99526546150445927 0.62739044427871682 0.37960115820169449 3.5006331056356434 0.40516730397939671 0.62462554872036014 0.55390959233045556 0.6239667534828186 0.49274510145187367 1.3072488382458685 0.7088482305407523 0.98696301132440567 0.3962060585618018 0.3962060585618018 0.39334703236818314 5.6347020417451859 0.60736185312271107
leaf_count=516 90 94 23 6 6 74 6 22 6 5 6 6 45 13 8 5 46 5 8 7 8 6 17 9 13 5 5 5 74 8
internal_value=0.00199538 0.197418 -0.047075 -0.0386045 -0.0337494 -0.0352843 -0.0299534 -0.0344044 -0.0304008 0.0122519 -0.0346387 -0.0106022 -0.0389119 -0.0140054 0.0134848 0.0446741 -0.0448726 -0.0389771 -0.0462422 -0.0315413 0.0415669 -0.054659 -0.0546823 -0.054584 -0.0546007 -0.0545513 -0.0545611 -0.0548602 -0.0545535 -0.0546087
internal_weight=92.043 18.4733 73.5697 34.3949 26.3681 25.8819 20.2638 19.7842 16.519 1.49296 15.026 2.26811 12.7579 2.46364 1.46838 1.00699 10.2943 6.39745 5.99228 2.1655 1.03744 3.26519 1.79598 2.37909 1.54087 3.89684 3.82678 0.886092 8.02678 2.39208
internal_count=1147 184 963 447 342 336 262 256 214 19 195 29 166 32 19 13 134 83 78 28 13 42 23 31 20 51 50 11 105 31
is_linear=0
shrinkage=0.05


end of trees

feature_importances:
monto_vs_suma_pct=26
monto_reclamado=17
dias_entre_ocurrencia_reporte=9
suma_asegurada=2
es_robo=2
documentos_incompletos=1

parameters:
[boosting: gbdt]
[objective: binary]
[metric: auc]
[tree_learner: serial]
[device_type: cpu]
[data_sample_strategy: bagging]
[data: ]
[valid: ]
[num_iterations: 500]
[learning_rate: 0.05]
[num_leaves: 31]
[num_threads: 0]
[seed: 0]
[deterministic: 0]
[force_col_wise: 0]
[force_row_wise: 0]
[histogram_pool_size: -1]
[max_depth: -1]
[min_data_in_leaf: 5]
[min_sum_hessian_in_leaf: 0.001]
[bagging_fraction: 0.9]
[pos_bagging_fraction: 1]
[neg_bagging_fraction: 1]
[bagging_freq: 5]
[bagging_seed: 3]
[bagging_by_query: 0]
[feature_fraction: 0.9]
[feature_fraction_bynode: 1]
[feature_fraction_seed: 2]
[extra_trees: 0]
[extra_seed: 6]
[early_stopping_round: 0]
[early_stopping_min_delta: 0]
[first_metric_only: 0]
[max_delta_step: 0]
[lambda_l1: 0]
[lambda_l2: 0]
[linear_lambda: 0]
[min_gain_to_split: 0]
[drop_rate: 0.1]
[max_drop: 50]
[skip_drop: 0.5]
[xgboost_dart_mode: 0]
[uniform_drop: 0]
[drop_seed: 4]
[top_rate: 0.2]
[other_rate: 0.1]
[min_data_per_group: 100]
[max_cat_threshold: 32]
[cat_l2: 10]
[cat_smooth: 10]
[max_cat_to_onehot: 4]
[top_k: 20]
[monotone_constraints: ]
[monotone_constraints_method: basic]
[monotone_penalty: 0]
[feature_contri: ]
[forcedsplits_filename: ]
[refit_decay_rate: 0.9]
[cegb_tradeoff: 1]
[cegb_penalty_split: 0]
[cegb_penalty_feature_lazy: ]
[cegb_penalty_feature_coupled: ]
[path_smooth: 0]
[interaction_constraints: ]
[verbosity: -1]
[saved_feature_importance_type: 0]
[use_quantized_grad: 0]
[num_grad_quant_bins: 4]
[quant_train_renew_leaf: 0]
[stochastic_rounding: 1]
[linear_tree: 0]
[max_bin: 255]
[max_bin_by_feature: ]
[min_data_in_bin: 3]
[bin_construct_sample_cnt: 200000]
[data_random_seed: 1]
[is_enable_sparse: 1]
[enable_bundle: 1]
[use_missing: 1]
[zero_as_missing: 0]
[feature_pre_filter: 1]
[pre_partition: 0]
[two_round: 0]
[header: 0]
[label_column: ]
[weight_column: ]
[group_column: ]
[ignore_column: ]
[categorical_feature: ]
[forcedbins_filename: ]
[precise_float_parser: 0]
[parser_config_file: ]
[objective_seed: 5]
[num_class: 1]
[is_unbalance: 0]
[scale_pos_weight: 1]
[sigmoid: 1]
[boost_from_average: 1]
[reg_sqrt: 0]
[alpha: 0.9]
[fair_c: 1]
[poisson_max_delta_step: 0.7]
[tweedie_variance_power: 1.5]
[lambdarank_truncation_level: 30]
[lambdarank_norm: 1]
[label_gain: ]
[lambdarank_position_bias_regularization: 0]
[eval_at: ]
[multi_error_top_k: 1]
[auc_mu_weights: ]
[num_machines: 1]
[local_listen_port: 12400]
[time_out: 120]
[machine_list_filename: ]
[machines: ]
[gpu_platform_id: -1]
[gpu_device_id: -1]
[gpu_use_dp: 0]
[num_gpu: 1]

end of parameters

pandas_categorical:null
